digraph Tree {
node [shape=box, style="filled, rounded", color="black", fontname="helvetica"] ;
edge [fontname="helvetica"] ;
0 [label="petal length (cm) <= 2.7\ngini = 0.65\nsamples = 96\nvalue = [65, 40, 45]\nclass = setosa", fillcolor="#fae7d9"] ;
1 [label="gini = 0.0\nsamples = 36\nvalue = [65, 0, 0]\nclass = setosa", fillcolor="#e58139"] ;
0 -> 1 [labeldistance=2.5, labelangle=45, headlabel="True"] ;
2 [label="petal width (cm) <= 1.65\ngini = 0.5\nsamples = 60\nvalue = [0, 40, 45]\nclass = virginica", fillcolor="#f1e9fc"] ;
0 -> 2 [labeldistance=2.5, labelangle=-45, headlabel="False"] ;
3 [label="gini = 0.0\nsamples = 27\nvalue = [0, 39, 0]\nclass = versicolor", fillcolor="#39e581"] ;
2 -> 3 ;
4 [label="sepal length (cm) <= 6.0\ngini = 0.04\nsamples = 33\nvalue = [0, 1, 45]\nclass = virginica", fillcolor="#843de6"] ;
2 -> 4 ;
5 [label="sepal length (cm) <= 5.85\ngini = 0.18\nsamples = 7\nvalue = [0, 1, 9]\nclass = virginica", fillcolor="#8f4fe8"] ;
4 -> 5 ;
6 [label="gini = 0.0\nsamples = 5\nvalue = [0, 0, 7]\nclass = virginica", fillcolor="#8139e5"] ;
5 -> 6 ;
7 [label="petal length (cm) <= 4.95\ngini = 0.44\nsamples = 2\nvalue = [0, 1, 2]\nclass = virginica", fillcolor="#c09cf2"] ;
5 -> 7 ;
8 [label="gini = 0.0\nsamples = 1\nvalue = [0, 1, 0]\nclass = versicolor", fillcolor="#39e581"] ;
7 -> 8 ;
9 [label="gini = 0.0\nsamples = 1\nvalue = [0, 0, 2]\nclass = virginica", fillcolor="#8139e5"] ;
7 -> 9 ;
10 [label="gini = 0.0\nsamples = 26\nvalue = [0, 0, 36]\nclass = virginica", fillcolor="#8139e5"] ;
4 -> 10 ;
}